{
  "aggregated_cca": {
    "aggregated_x_weights": {
      "by_shape": {
        "(5, 2)": {
          "mean": [
            [
              -0.25233945892369847,
              0.030662065318342462
            ],
            [
              -0.027441463906712683,
              0.030383911867070193
            ],
            [
              -0.057659067424552145,
              0.033178083865249855
            ],
            [
              0.27314181985598807,
              0.1988729610076892
            ],
            [
              0.14870398741972082,
              0.011026421742887814
            ]
          ],
          "median": [
            [
              -0.387571407357272,
              -0.140607028325208
            ],
            [
              -0.07003207508177614,
              -0.07979564986678638
            ],
            [
              -0.1474557707390104,
              -0.14060702832520883
            ],
            [
              0.4907876563413235,
              -0.05227588210887373
            ],
            [
              0.0,
              0.0
            ]
          ],
          "std": [
            [
              0.3732296552078081,
              0.49049365653198845
            ],
            [
              0.3207331619784298,
              0.40010380038693305
            ],
            [
              0.45259212907595087,
              0.41483827603610474
            ],
            [
              0.5087752339964347,
              0.4853449731580674
            ],
            [
              0.3600914537931528,
              0.38606504295012173
            ]
          ],
          "var": [
            [
              0.13930037552653932,
              0.24058402709812027
            ],
            [
              0.10286976119268171,
              0.16008305108406676
            ],
            [
              0.20483963530150218,
              0.17209079526460744
            ],
            [
              0.25885223872812685,
              0.23555974296980517
            ],
            [
              0.1296658550948663,
              0.14904621738807936
            ]
          ],
          "count": 15
        }
      },
      "first_dim_5": {
        "mean": [
          -0.25233945892369847,
          0.030662065318342462,
          -0.027441463906712683,
          0.030383911867070193,
          -0.057659067424552145
        ],
        "count": 15
      }
    },
    "aggregated_y_weights": {
      "by_shape": {
        "(15, 2)": {
          "mean": [
            [
              0.0,
              0.0
            ],
            [
              0.06868525994650551,
              0.034189923865460874
            ],
            [
              0.04258363936320764,
              -0.18155462091245733
            ],
            [
              0.11020399848974566,
              0.11053995779371797
            ],
            [
              -0.107049353442618,
              0.10428883940720537
            ],
            [
              -0.014579832043572993,
              -0.028609926412004178
            ],
            [
              0.027798534843733853,
              -0.0238001075434057
            ],
            [
              -0.03075706505421037,
              -0.009608271256061065
            ],
            [
              0.07962316770603299,
              0.07629865964532817
            ],
            [
              -0.19374038771204344,
              -0.015405540506355989
            ],
            [
              3.858482320166271e-16,
              -4.0730302445665097e-17
            ],
            [
              -0.016203326832984775,
              -0.02602277742222136
            ],
            [
              -0.0006689293931600854,
              0.02134163751076246
            ],
            [
              -0.03483466653414333,
              -0.005220652804626599
            ],
            [
              0.02123945180996418,
              0.027591036702395075
            ]
          ],
          "median": [
            [
              0.0,
              0.0
            ],
            [
              0.002276857195929231,
              0.0025431479166714904
            ],
            [
              0.044412616742689634,
              -0.058427971620891174
            ],
            [
              0.18590692781722967,
              0.15312472435722724
            ],
            [
              -0.1351893474796941,
              -2.2991789578854908e-10
            ],
            [
              0.006172207722055356,
              -0.008499715538278383
            ],
            [
              0.030561112088362607,
              -4.0253910509454114e-09
            ],
            [
              -0.012389342811741304,
              0.033749800035795086
            ],
            [
              0.0427661730171061,
              4.7008355803750654e-09
            ],
            [
              -0.17560039372447875,
              -0.04775490398702061
            ],
            [
              1.5582874527399285e-17,
              8.070305994995434e-18
            ],
            [
              0.006112386157184797,
              -0.04074724858793679
            ],
            [
              0.00014405512624345346,
              0.03216822905373662
            ],
            [
              -0.056987285470151236,
              -0.03977319019197488
            ],
            [
              0.021999980307729757,
              0.006419918708362343
            ]
          ],
          "std": [
            [
              0.0,
              0.0
            ],
            [
              0.3432252841144654,
              0.3749698515270416
            ],
            [
              0.08966584977132762,
              0.25615916083627427
            ],
            [
              0.44863750856980916,
              0.360012472171668
            ],
            [
              0.31818826989942706,
              0.2318182942633348
            ],
            [
              0.14814590955604706,
              0.10232784321626331
            ],
            [
              0.49552312448210495,
              0.36412151101624557
            ],
            [
              0.16041147573114323,
              0.14885089747294605
            ],
            [
              0.22514524601319577,
              0.3745947862086612
            ],
            [
              0.3164714836261639,
              0.23816576472523343
            ],
            [
              1.004192691534323e-15,
              1.4089488690702422e-16
            ],
            [
              0.13395696031892632,
              0.26670959045813564
            ],
            [
              0.12014791581374204,
              0.12496578818639566
            ],
            [
              0.0968158341079235,
              0.12078417312863474
            ],
            [
              0.08914797379214891,
              0.056826525320831656
            ]
          ],
          "var": [
            [
              0.0,
              0.0
            ],
            [
              0.11780359565545548,
              0.14060238955421162
            ],
            [
              0.008039964615214293,
              0.06561751568034423
            ],
            [
              0.20127561409572559,
              0.12960898011915603
            ],
            [
              0.10124377510159063,
              0.05373972155516209
            ],
            [
              0.021947210518188473,
              0.010470987497292165
            ],
            [
              0.24554316689650765,
              0.13258447478475383
            ],
            [
              0.025731841546243157,
              0.0221565896785015
            ],
            [
              0.05069038180234245,
              0.1403212538547126
            ],
            [
              0.10015419994854532,
              0.056722931487155244
            ],
            [
              1.0084029617309479e-30,
              1.9851369156543145e-32
            ],
            [
              0.017944467217886402,
              0.07113400564234643
            ],
            [
              0.014435521674386043,
              0.015616448217047106
            ],
            [
              0.009373305734012965,
              0.01458881647836801
            ],
            [
              0.007947361231245668,
              0.003229253980039121
            ]
          ],
          "count": 13
        },
        "(20, 2)": {
          "mean": [
            [
              -3.547791060185864e-15,
              -7.850711934974952e-15
            ],
            [
              0.055932093652346034,
              0.3351752269771496
            ],
            [
              -0.12011548561765148,
              0.020927817949917358
            ],
            [
              -0.20992759629584887,
              -0.17075028060068184
            ],
            [
              -0.25426480124115125,
              -0.12737198936670716
            ],
            [
              -0.15493873053195664,
              -0.056339324849279004
            ],
            [
              0.18611600043474524,
              0.35792149449108224
            ],
            [
              0.41498739901877557,
              -0.28791397210064706
            ],
            [
              -0.17947451938420433,
              -0.048821991533699934
            ],
            [
              -0.18237093492169298,
              -0.05132253430252204
            ],
            [
              -0.018996264701058616,
              0.010166368361015615
            ],
            [
              0.2701380441376065,
              0.02031825434666086
            ],
            [
              0.05831654915360117,
              0.08743676104542163
            ],
            [
              0.11025052513640007,
              -0.014913700620575896
            ],
            [
              0.15239657836458434,
              -0.1895480340704683
            ],
            [
              -7.443019388724031e-17,
              -1.5880976479287264e-16
            ],
            [
              0.10553822772905588,
              -0.06924206127405337
            ],
            [
              0.10367027288174786,
              0.0651176026884089
            ],
            [
              0.08999466153674116,
              -0.13292671537582265
            ],
            [
              0.006203720671401063,
              -0.029596154426939213
            ]
          ],
          "median": [
            [
              -3.547791060185864e-15,
              -7.850711934974952e-15
            ],
            [
              0.055932093652346034,
              0.3351752269771496
            ],
            [
              -0.12011548561765148,
              0.020927817949917358
            ],
            [
              -0.20992759629584887,
              -0.17075028060068184
            ],
            [
              -0.25426480124115125,
              -0.12737198936670716
            ],
            [
              -0.15493873053195664,
              -0.056339324849279004
            ],
            [
              0.18611600043474524,
              0.35792149449108224
            ],
            [
              0.41498739901877557,
              -0.28791397210064706
            ],
            [
              -0.17947451938420433,
              -0.048821991533699934
            ],
            [
              -0.18237093492169298,
              -0.05132253430252204
            ],
            [
              -0.018996264701058616,
              0.010166368361015615
            ],
            [
              0.2701380441376065,
              0.02031825434666086
            ],
            [
              0.05831654915360117,
              0.08743676104542163
            ],
            [
              0.11025052513640007,
              -0.014913700620575896
            ],
            [
              0.15239657836458434,
              -0.1895480340704683
            ],
            [
              -7.443019388724031e-17,
              -1.5880976479287264e-16
            ],
            [
              0.10553822772905588,
              -0.06924206127405337
            ],
            [
              0.10367027288174786,
              0.0651176026884089
            ],
            [
              0.08999466153674116,
              -0.13292671537582265
            ],
            [
              0.006203720671401063,
              -0.029596154426939213
            ]
          ],
          "std": [
            [
              4.97910527566737e-15,
              7.240620340911918e-15
            ],
            [
              0.10866894879696135,
              0.34807269027199456
            ],
            [
              0.04466901135933027,
              0.06567489350857732
            ],
            [
              0.05135276551953569,
              0.19151206774084656
            ],
            [
              0.05650650859954151,
              0.006835319450654527
            ],
            [
              0.20077632043357377,
              0.10604085298979923
            ],
            [
              0.2275042244182074,
              0.07683461340967271
            ],
            [
              0.20220480880724925,
              0.14647664799353458
            ],
            [
              0.03507700500047113,
              0.11503162163810854
            ],
            [
              0.2622150905514261,
              0.36702982768477954
            ],
            [
              0.02059307212021708,
              0.09166764989007783
            ],
            [
              0.3202450574924846,
              0.18647167539520093
            ],
            [
              0.25582585737115665,
              0.088190552179315
            ],
            [
              0.07642394649100323,
              0.007986010137091935
            ],
            [
              0.10761659371307006,
              0.3502825876278902
            ],
            [
              3.055081322094161e-17,
              1.70413386910683e-16
            ],
            [
              0.07570927798063404,
              0.07285358089217402
            ],
            [
              0.09746233614755,
              0.03441570791325441
            ],
            [
              0.10766999630177121,
              0.14326904315170944
            ],
            [
              0.00178642301812273,
              0.03582909007658277
            ]
          ],
          "var": [
            [
              2.4791489346178633e-29,
              5.242658292122741e-29
            ],
            [
              0.011808940432636608,
              0.12115459771318385
            ],
            [
              0.001995320575819977,
              0.004313191637362971
            ],
            [
              0.002637106526504413,
              0.036676872090374596
            ],
            [
              0.003192985514110059,
              4.67215919924961e-05
            ],
            [
              0.040311130846845095,
              0.011244662502804212
            ],
            [
              0.051758172128130074,
              0.005903557817813857
            ],
            [
              0.040886784704776226,
              0.021455408407421835
            ],
            [
              0.001230396279803077,
              0.01323227397669296
            ],
            [
              0.0687567537128926,
              0.13471089441031897
            ],
            [
              0.000424074619348462,
              0.008402958036369887
            ],
            [
              0.10255689684836479,
              0.034771685724693184
            ],
            [
              0.06544686929968739,
              0.007777573493692481
            ],
            [
              0.005840619597259725,
              6.377635790973514e-05
            ],
            [
              0.01158133124240399,
              0.12269789119529059
            ],
            [
              9.333521884608604e-34,
              2.9040722438370143e-32
            ],
            [
              0.005731894772348918,
              0.005307644248812542
            ],
            [
              0.00949890696733803,
              0.0011844409511704425
            ],
            [
              0.011592828103623425,
              0.02052601872560638
            ],
            [
              3.191307199678724e-06,
              0.0012837236957158817
            ]
          ],
          "count": 2
        }
      },
      "first_dim_15": {
        "mean": [
          0.0,
          0.0,
          0.06868525994650551,
          0.034189923865460874,
          0.04258363936320764,
          -0.18155462091245733,
          0.11020399848974566,
          0.11053995779371797,
          -0.107049353442618,
          0.10428883940720537,
          -0.014579832043572993,
          -0.028609926412004178,
          0.027798534843733853,
          -0.0238001075434057,
          -0.03075706505421037
        ],
        "count": 13
      },
      "first_dim_20": {
        "mean": [
          -3.547791060185864e-15,
          -7.850711934974952e-15,
          0.055932093652346034,
          0.3351752269771496,
          -0.12011548561765148,
          0.020927817949917358,
          -0.20992759629584887,
          -0.17075028060068184,
          -0.25426480124115125,
          -0.12737198936670716,
          -0.15493873053195664,
          -0.056339324849279004,
          0.18611600043474524,
          0.35792149449108224,
          0.41498739901877557,
          -0.28791397210064706,
          -0.17947451938420433,
          -0.048821991533699934,
          -0.18237093492169298,
          -0.05132253430252204
        ],
        "count": 2
      }
    },
    "score_statistics": {
      "mean": -8.955241160679211,
      "median": 0.18210538629864648,
      "std": 29.07702439672448,
      "min": -117.06500610270864,
      "max": 0.40629085358766653
    },
    "feature_importance": {
      "groupA": {
        "Accuracy": 1.0,
        "Precision": 1.0,
        "Recall": 1.0,
        "F1": 1.0,
        "AUC": 1.0
      },
      "groupB": {
        "layer_0_eigens_mean": 1.0,
        "layer_0_weights_mean_val": 1.0,
        "layer_0_gradient_mean_val": 1.0,
        "layer_0_bias_mean_val": 1.0,
        "layer_0_bias_gradient_mean_val": 1.0,
        "layer_1_eigens_mean": 1.0,
        "layer_1_weights_mean_val": 1.0,
        "layer_1_gradient_mean_val": 1.0,
        "layer_1_bias_mean_val": 1.0,
        "layer_1_bias_gradient_mean_val": 1.0,
        "layer_2_eigens_mean": 1.0,
        "layer_2_weights_mean_val": 1.0,
        "layer_2_gradient_mean_val": 1.0,
        "layer_2_bias_mean_val": 1.0,
        "layer_2_bias_gradient_mean_val": 1.0,
        "layer_3_eigens_mean": 0.13333333333333333,
        "layer_3_weights_mean_val": 0.13333333333333333,
        "layer_3_gradient_mean_val": 0.13333333333333333,
        "layer_3_bias_mean_val": 0.13333333333333333,
        "layer_3_bias_gradient_mean_val": 0.13333333333333333
      }
    },
    "total_samples": 15,
    "shapes_distribution": {
      "x_weights": {
        "(5, 2)": 15
      },
      "y_weights": {
        "(15, 2)": 13,
        "(20, 2)": 2
      }
    }
  },
  "AUC": {
    "aggregated": {
      "std": {
        "mean": 0.030129921230557667,
        "median": 0.001952215098509798,
        "std": 0.047890375270518606,
        "min": 0.0,
        "max": 0.13462431040954373,
        "count": 17
      },
      "max": {
        "mean": 0.5422364360301095,
        "median": 0.5476,
        "std": 0.4106258117771481,
        "min": 0.0,
        "max": 1.0,
        "count": 17
      },
      "min": {
        "mean": 0.44487562315457907,
        "median": 0.46296668004817343,
        "std": 0.3668787613454867,
        "min": 0.0,
        "max": 1.0,
        "count": 17
      },
      "mean": {
        "mean": 0.5195068398694596,
        "median": 0.5450305555555555,
        "std": 0.3978849903705209,
        "min": 0.0,
        "max": 1.0,
        "count": 17
      },
      "non_na_count": {
        "mean": 17.0,
        "median": 18.0,
        "std": 2.7439773622801416,
        "min": 9.0,
        "max": 18.0,
        "count": 17
      },
      "na_count": {
        "mean": 0.0,
        "median": 0.0,
        "std": 0.0,
        "min": 0.0,
        "max": 0.0,
        "count": 17
      }
    },
    "distribution": {
      "std": {
        "q25": 0.0,
        "q50": 0.001952215098509798,
        "q75": 0.02798616642173355,
        "iqr": 0.02798616642173355,
        "skew": 1.282989430630481,
        "kurtosis": -0.1325316594781687,
        "range": 0.13462431040954373,
        "normality": {
          "shapiro_stat": 0.6499198862567579,
          "shapiro_p_value": 3.302470345115398e-05,
          "is_normal": false
        }
      },
      "max": {
        "q25": 0.0,
        "q50": 0.5476,
        "q75": 0.9556797290759554,
        "iqr": 0.9556797290759554,
        "skew": -0.2695475780065194,
        "kurtosis": -1.6120751665200292,
        "range": 1.0,
        "normality": {
          "shapiro_stat": 0.8170478633304052,
          "shapiro_p_value": 0.0035087690998324445,
          "is_normal": false
        }
      },
      "min": {
        "q25": 0.0,
        "q50": 0.46296668004817343,
        "q75": 0.5834155781325594,
        "iqr": 0.5834155781325594,
        "skew": 0.21329760595855327,
        "kurtosis": -1.2097834614644887,
        "range": 1.0,
        "normality": {
          "shapiro_stat": 0.8635995169120076,
          "shapiro_p_value": 0.01740887383735896,
          "is_normal": false
        }
      },
      "mean": {
        "q25": 0.0,
        "q50": 0.5450305555555555,
        "q75": 0.8851580390259636,
        "iqr": 0.8851580390259636,
        "skew": -0.20648827345004417,
        "kurtosis": -1.5698855887412213,
        "range": 1.0,
        "normality": {
          "shapiro_stat": 0.8439309986098413,
          "shapiro_p_value": 0.008677747673018914,
          "is_normal": false
        }
      },
      "non_na_count": {
        "q25": 18.0,
        "q50": 18.0,
        "q75": 18.0,
        "iqr": 0.0,
        "skew": -2.391601363120143,
        "kurtosis": 3.7568359375,
        "range": 9.0,
        "normality": {
          "shapiro_stat": 0.3930580282482149,
          "shapiro_p_value": 1.8149722429145463e-07,
          "is_normal": false
        }
      },
      "na_count": {
        "q25": 0.0,
        "q50": 0.0,
        "q75": 0.0,
        "iqr": 0.0,
        "skew": null,
        "kurtosis": null,
        "range": 0.0,
        "normality": {
          "shapiro_stat": 1.0,
          "shapiro_p_value": 1.0,
          "is_normal": true
        }
      }
    },
    "datasets": {
      "std": {
        "Adult Income": 0.13462431040954373,
        "Breast Cancer Wisconsin": 0.001683548510606337,
        "Credit Card Fraud Detection": 0.01022307324930136,
        "Digits": 0.0,
        "Iris": 0.0,
        "Make Biclusters": 0.0,
        "Make Blobs": 0.0,
        "Make Checkerboard": 0.0,
        "Make Circles": 0.0021540071336989897,
        "Make Classification": 0.12522004617194457,
        "Make Gaussian Quantiles": 0.010960503927305515,
        "Make Hastie 10 2": 0.02798616642173355,
        "Make Moons": 0.001952215098509798,
        "Make Multilabel Classification": 0.0,
        "SpamBase": 0.10628059610385562,
        "Titanic Dataset": 0.09112419389298092,
        "Wine": 0.0
      },
      "max": {
        "Adult Income": 0.8130297876266064,
        "Breast Cancer Wisconsin": 0.9983622666229938,
        "Credit Card Fraud Detection": 0.18615773546334685,
        "Digits": 0.0,
        "Iris": 0.0,
        "Make Biclusters": 1.0,
        "Make Blobs": 0.0,
        "Make Checkerboard": 1.0,
        "Make Circles": 0.5476,
        "Make Classification": 0.9120332792207793,
        "Make Gaussian Quantiles": 0.47646233974358976,
        "Make Hastie 10 2": 0.5416499397832196,
        "Make Moons": 0.965,
        "Make Multilabel Classification": 0.0,
        "SpamBase": 0.9556797290759554,
        "Titanic Dataset": 0.8220443349753693,
        "Wine": 0.0
      },
      "min": {
        "Adult Income": 0.46761715919567515,
        "Breast Cancer Wisconsin": 0.9911562397641664,
        "Credit Card Fraud Detection": 0.15425741906216622,
        "Digits": 0.0,
        "Iris": 0.0,
        "Make Biclusters": 1.0,
        "Make Blobs": 0.0,
        "Make Checkerboard": 1.0,
        "Make Circles": 0.5393,
        "Make Classification": 0.5333806818181819,
        "Make Gaussian Quantiles": 0.4405048076923077,
        "Make Hastie 10 2": 0.46296668004817343,
        "Make Moons": 0.9572,
        "Make Multilabel Classification": 0.0,
        "SpamBase": 0.5834155781325594,
        "Titanic Dataset": 0.43308702791461406,
        "Wine": 0.0
      },
      "mean": {
        "Adult Income": 0.6939991218497673,
        "Breast Cancer Wisconsin": 0.9967973213960768,
        "Credit Card Fraud Detection": 0.17368308934903917,
        "Digits": 0.0,
        "Iris": 0.0,
        "Make Biclusters": 1.0,
        "Make Blobs": 0.0,
        "Make Checkerboard": 1.0,
        "Make Circles": 0.5450305555555555,
        "Make Classification": 0.8378934433621932,
        "Make Gaussian Quantiles": 0.46118790064102555,
        "Make Hastie 10 2": 0.49895178197064993,
        "Make Moons": 0.9638055555555556,
        "Make Multilabel Classification": 0.0,
        "SpamBase": 0.8851580390259636,
        "Titanic Dataset": 0.7751094690749862,
        "Wine": 0.0
      },
      "non_na_count": {
        "Adult Income": 18,
        "Breast Cancer Wisconsin": 18,
        "Credit Card Fraud Detection": 18,
        "Digits": 18,
        "Iris": 18,
        "Make Biclusters": 9,
        "Make Blobs": 18,
        "Make Checkerboard": 10,
        "Make Circles": 18,
        "Make Classification": 18,
        "Make Gaussian Quantiles": 18,
        "Make Hastie 10 2": 18,
        "Make Moons": 18,
        "Make Multilabel Classification": 18,
        "SpamBase": 18,
        "Titanic Dataset": 18,
        "Wine": 18
      },
      "na_count": {
        "Adult Income": 0,
        "Breast Cancer Wisconsin": 0,
        "Credit Card Fraud Detection": 0,
        "Digits": 0,
        "Iris": 0,
        "Make Biclusters": 0,
        "Make Blobs": 0,
        "Make Checkerboard": 0,
        "Make Circles": 0,
        "Make Classification": 0,
        "Make Gaussian Quantiles": 0,
        "Make Hastie 10 2": 0,
        "Make Moons": 0,
        "Make Multilabel Classification": 0,
        "SpamBase": 0,
        "Titanic Dataset": 0,
        "Wine": 0
      }
    }
  },
  "Accuracy": {
    "aggregated": {
      "std": {
        "mean": 0.058673370869627775,
        "median": 0.045796929380858956,
        "std": 0.057892264435584415,
        "min": 0.0,
        "max": 0.16697630701876282,
        "count": 17
      },
      "max": {
        "mean": 0.8397090828020051,
        "median": 0.85,
        "std": 0.14319339926939822,
        "min": 0.545,
        "max": 1.0,
        "count": 17
      },
      "min": {
        "mean": 0.6351167636891953,
        "median": 0.6,
        "std": 0.2458946445964311,
        "min": 0.2638888888888889,
        "max": 1.0,
        "count": 17
      },
      "mean": {
        "mean": 0.7803957005082865,
        "median": 0.7849999999999999,
        "std": 0.16462718630423512,
        "min": 0.5169444444444444,
        "max": 1.0,
        "count": 17
      },
      "non_na_count": {
        "mean": 17.0,
        "median": 18.0,
        "std": 2.7439773622801416,
        "min": 9.0,
        "max": 18.0,
        "count": 17
      },
      "na_count": {
        "mean": 0.0,
        "median": 0.0,
        "std": 0.0,
        "min": 0.0,
        "max": 0.0,
        "count": 17
      }
    },
    "distribution": {
      "std": {
        "q25": 0.01181710471382085,
        "q50": 0.045796929380858956,
        "q75": 0.10304020550550783,
        "iqr": 0.09122310079168698,
        "skew": 0.737697565703904,
        "kurtosis": -0.942467775486302,
        "range": 0.16697630701876282,
        "normality": {
          "shapiro_stat": 0.8474739270414793,
          "shapiro_p_value": 0.009816257922144132,
          "is_normal": false
        }
      },
      "max": {
        "q25": 0.7692307692307693,
        "q50": 0.85,
        "q75": 0.9912280701754386,
        "iqr": 0.2219973009446693,
        "skew": -0.45802292305197706,
        "kurtosis": -0.965464040454834,
        "range": 0.45499999999999996,
        "normality": {
          "shapiro_stat": 0.9050707365657884,
          "shapiro_p_value": 0.08261913944692674,
          "is_normal": true
        }
      },
      "min": {
        "q25": 0.44,
        "q50": 0.6,
        "q75": 0.82,
        "iqr": 0.37999999999999995,
        "skew": 0.24695798203724956,
        "kurtosis": -1.3037824130417706,
        "range": 0.7361111111111112,
        "normality": {
          "shapiro_stat": 0.9126840073550264,
          "shapiro_p_value": 0.11105050872637623,
          "is_normal": true
        }
      },
      "mean": {
        "q25": 0.6163888888888889,
        "q50": 0.7849999999999999,
        "q75": 0.8851851851851853,
        "iqr": 0.2687962962962964,
        "skew": -0.18230479537871505,
        "kurtosis": -1.254392125019783,
        "range": 0.48305555555555557,
        "normality": {
          "shapiro_stat": 0.9148896773099924,
          "shapiro_p_value": 0.12101263974798071,
          "is_normal": true
        }
      },
      "non_na_count": {
        "q25": 18.0,
        "q50": 18.0,
        "q75": 18.0,
        "iqr": 0.0,
        "skew": -2.391601363120143,
        "kurtosis": 3.7568359375,
        "range": 9.0,
        "normality": {
          "shapiro_stat": 0.3930580282482149,
          "shapiro_p_value": 1.8149722429145463e-07,
          "is_normal": false
        }
      },
      "na_count": {
        "q25": 0.0,
        "q50": 0.0,
        "q75": 0.0,
        "iqr": 0.0,
        "skew": null,
        "kurtosis": null,
        "range": 0.0,
        "normality": {
          "shapiro_stat": 1.0,
          "shapiro_p_value": 1.0,
          "is_normal": true
        }
      }
    },
    "datasets": {
      "std": {
        "Adult Income": 0.01181710471382085,
        "Breast Cancer Wisconsin": 0.010041685646659934,
        "Credit Card Fraud Detection": 1.1424100674951067e-16,
        "Digits": 0.16697630701876282,
        "Iris": 0.10304020550550783,
        "Make Biclusters": 0.0,
        "Make Blobs": 0.1623562712787203,
        "Make Checkerboard": 0.0,
        "Make Circles": 0.05152970461312913,
        "Make Classification": 0.14684926245083066,
        "Make Gaussian Quantiles": 0.06576411103826764,
        "Make Hastie 10 2": 0.022696131368252343,
        "Make Moons": 0.017480147469502542,
        "Make Multilabel Classification": 0.013826657968874317,
        "SpamBase": 0.1262248024064718,
        "Titanic Dataset": 0.045796929380858956,
        "Wine": 0.05304798392401286
      },
      "max": {
        "Adult Income": 0.8014126317944519,
        "Breast Cancer Wisconsin": 0.9912280701754386,
        "Credit Card Fraud Detection": 0.9982795547909132,
        "Digits": 0.775,
        "Iris": 0.9666666666666667,
        "Make Biclusters": 1.0,
        "Make Blobs": 1.0,
        "Make Checkerboard": 1.0,
        "Make Circles": 0.675,
        "Make Classification": 0.85,
        "Make Gaussian Quantiles": 0.655,
        "Make Hastie 10 2": 0.545,
        "Make Moons": 0.895,
        "Make Multilabel Classification": 0.81,
        "SpamBase": 0.9043478260869565,
        "Titanic Dataset": 0.7692307692307693,
        "Wine": 0.6388888888888888
      },
      "min": {
        "Adult Income": 0.7537107175760057,
        "Breast Cancer Wisconsin": 0.9649122807017544,
        "Credit Card Fraud Detection": 0.9982795547909132,
        "Digits": 0.2638888888888889,
        "Iris": 0.6,
        "Make Biclusters": 1.0,
        "Make Blobs": 0.31,
        "Make Checkerboard": 1.0,
        "Make Circles": 0.535,
        "Make Classification": 0.44,
        "Make Gaussian Quantiles": 0.48,
        "Make Hastie 10 2": 0.45,
        "Make Moons": 0.82,
        "Make Multilabel Classification": 0.76,
        "SpamBase": 0.42391304347826086,
        "Titanic Dataset": 0.6083916083916084,
        "Wine": 0.3888888888888889
      },
      "mean": {
        "Adult Income": 0.7711013296027116,
        "Breast Cancer Wisconsin": 0.9770955165692007,
        "Credit Card Fraud Detection": 0.9982795547909132,
        "Digits": 0.5424382716049383,
        "Iris": 0.8851851851851853,
        "Make Biclusters": 1.0,
        "Make Blobs": 0.8825,
        "Make Checkerboard": 1.0,
        "Make Circles": 0.6163888888888889,
        "Make Classification": 0.7516666666666666,
        "Make Gaussian Quantiles": 0.5447222222222222,
        "Make Hastie 10 2": 0.5169444444444444,
        "Make Moons": 0.8755555555555555,
        "Make Multilabel Classification": 0.7849999999999999,
        "SpamBase": 0.7984299516908213,
        "Titanic Dataset": 0.7288267288267289,
        "Wine": 0.5925925925925927
      },
      "non_na_count": {
        "Adult Income": 18,
        "Breast Cancer Wisconsin": 18,
        "Credit Card Fraud Detection": 18,
        "Digits": 18,
        "Iris": 18,
        "Make Biclusters": 9,
        "Make Blobs": 18,
        "Make Checkerboard": 10,
        "Make Circles": 18,
        "Make Classification": 18,
        "Make Gaussian Quantiles": 18,
        "Make Hastie 10 2": 18,
        "Make Moons": 18,
        "Make Multilabel Classification": 18,
        "SpamBase": 18,
        "Titanic Dataset": 18,
        "Wine": 18
      },
      "na_count": {
        "Adult Income": 0,
        "Breast Cancer Wisconsin": 0,
        "Credit Card Fraud Detection": 0,
        "Digits": 0,
        "Iris": 0,
        "Make Biclusters": 0,
        "Make Blobs": 0,
        "Make Checkerboard": 0,
        "Make Circles": 0,
        "Make Classification": 0,
        "Make Gaussian Quantiles": 0,
        "Make Hastie 10 2": 0,
        "Make Moons": 0,
        "Make Multilabel Classification": 0,
        "SpamBase": 0,
        "Titanic Dataset": 0,
        "Wine": 0
      }
    }
  },
  "F1": {
    "aggregated": {
      "std": {
        "mean": 0.08681745468743811,
        "median": 0.09171749994150875,
        "std": 0.07371911340292127,
        "min": 0.0,
        "max": 0.20470480289336623,
        "count": 17
      },
      "max": {
        "mean": 0.7818152659106606,
        "median": 0.764524240557081,
        "std": 0.1758467513334094,
        "min": 0.4995695183877146,
        "max": 1.0,
        "count": 17
      },
      "min": {
        "mean": 0.4952023121269698,
        "median": 0.43361549165120594,
        "std": 0.27625540094820383,
        "min": 0.15776081424936386,
        "max": 1.0,
        "count": 17
      },
      "mean": {
        "mean": 0.6975418540078618,
        "median": 0.6913979030991826,
        "std": 0.1950864832792623,
        "min": 0.4429987156686185,
        "max": 1.0,
        "count": 17
      },
      "non_na_count": {
        "mean": 17.0,
        "median": 18.0,
        "std": 2.7439773622801416,
        "min": 9.0,
        "max": 18.0,
        "count": 17
      },
      "na_count": {
        "mean": 0.0,
        "median": 0.0,
        "std": 0.0,
        "min": 0.0,
        "max": 0.0,
        "count": 17
      }
    },
    "distribution": {
      "std": {
        "q25": 0.010621604812189524,
        "q50": 0.09171749994150875,
        "q75": 0.14381160196956236,
        "iqr": 0.13318999715737284,
        "skew": 0.22773245034993936,
        "kurtosis": -1.420935037196353,
        "range": 0.20470480289336623,
        "normality": {
          "shapiro_stat": 0.8834859177508214,
          "shapiro_p_value": 0.036229119223025484,
          "is_normal": false
        }
      },
      "max": {
        "q25": 0.6246573898376555,
        "q50": 0.764524240557081,
        "q75": 0.9658994032395567,
        "iqr": 0.3412420134019012,
        "skew": -0.1280045267471445,
        "kurtosis": -1.4601327277088991,
        "range": 0.5004304816122854,
        "normality": {
          "shapiro_stat": 0.901581422388809,
          "shapiro_p_value": 0.07219295579187485,
          "is_normal": true
        }
      },
      "min": {
        "q25": 0.3055555555555556,
        "q50": 0.43361549165120594,
        "q75": 0.5340564643402891,
        "iqr": 0.2285009087847335,
        "skew": 0.7301543579824203,
        "kurtosis": -0.7107410040499422,
        "range": 0.8422391857506362,
        "normality": {
          "shapiro_stat": 0.8751087680453048,
          "shapiro_p_value": 0.02651455904227569,
          "is_normal": false
        }
      },
      "mean": {
        "q25": 0.5136800495275967,
        "q50": 0.6913979030991826,
        "q75": 0.8606742900126084,
        "iqr": 0.3469942404850117,
        "skew": 0.24366660363037254,
        "kurtosis": -1.448422321033918,
        "range": 0.5570012843313815,
        "normality": {
          "shapiro_stat": 0.8944970633362198,
          "shapiro_p_value": 0.054992255604928104,
          "is_normal": true
        }
      },
      "non_na_count": {
        "q25": 18.0,
        "q50": 18.0,
        "q75": 18.0,
        "iqr": 0.0,
        "skew": -2.391601363120143,
        "kurtosis": 3.7568359375,
        "range": 9.0,
        "normality": {
          "shapiro_stat": 0.3930580282482149,
          "shapiro_p_value": 1.8149722429145463e-07,
          "is_normal": false
        }
      },
      "na_count": {
        "q25": 0.0,
        "q50": 0.0,
        "q75": 0.0,
        "iqr": 0.0,
        "skew": null,
        "kurtosis": null,
        "range": 0.0,
        "normality": {
          "shapiro_stat": 1.0,
          "shapiro_p_value": 1.0,
          "is_normal": true
        }
      }
    },
    "datasets": {
      "std": {
        "Adult Income": 0.11985915891694018,
        "Breast Cancer Wisconsin": 0.010621604812189524,
        "Credit Card Fraud Detection": 1.1424100674951067e-16,
        "Digits": 0.19989394407486993,
        "Iris": 0.14381160196956236,
        "Make Biclusters": 0.0,
        "Make Blobs": 0.20470480289336623,
        "Make Checkerboard": 0.0,
        "Make Circles": 0.038518250392857264,
        "Make Classification": 0.1942126123043705,
        "Make Gaussian Quantiles": 0.13109201707989132,
        "Make Hastie 10 2": 0.048146229199872013,
        "Make Moons": 0.01852597001813807,
        "Make Multilabel Classification": 0.009057099275092505,
        "SpamBase": 0.15085771345818821,
        "Titanic Dataset": 0.11487822534960082,
        "Wine": 0.09171749994150875
      },
      "max": {
        "Adult Income": 0.6994489384225397,
        "Breast Cancer Wisconsin": 0.99062114356232,
        "Credit Card Fraud Detection": 0.4995695183877146,
        "Digits": 0.764524240557081,
        "Iris": 0.9658994032395567,
        "Make Biclusters": 1.0,
        "Make Blobs": 1.0,
        "Make Checkerboard": 1.0,
        "Make Circles": 0.6462681287584011,
        "Make Classification": 0.8492613807657522,
        "Make Gaussian Quantiles": 0.6053333333333333,
        "Make Hastie 10 2": 0.525039797489496,
        "Make Moons": 0.8949763696831787,
        "Make Multilabel Classification": 0.5668297169614115,
        "SpamBase": 0.901364522417154,
        "Titanic Dataset": 0.757065637065637,
        "Wine": 0.6246573898376555
      },
      "min": {
        "Adult Income": 0.43361549165120594,
        "Breast Cancer Wisconsin": 0.9619111259605746,
        "Credit Card Fraud Detection": 0.4995695183877146,
        "Digits": 0.1604892267434901,
        "Iris": 0.48504273504273504,
        "Make Biclusters": 1.0,
        "Make Blobs": 0.15776081424936386,
        "Make Checkerboard": 1.0,
        "Make Circles": 0.5340564643402891,
        "Make Classification": 0.3055555555555556,
        "Make Gaussian Quantiles": 0.32432432432432434,
        "Make Hastie 10 2": 0.3464052287581699,
        "Make Moons": 0.8146431881371641,
        "Make Multilabel Classification": 0.5324281731118924,
        "SpamBase": 0.29770992366412213,
        "Titanic Dataset": 0.3782608695652174,
        "Wine": 0.18666666666666668
      },
      "mean": {
        "Adult Income": 0.5136800495275967,
        "Breast Cancer Wisconsin": 0.9756571547928505,
        "Credit Card Fraud Detection": 0.4995695183877145,
        "Digits": 0.4838606308479048,
        "Iris": 0.8605431135614899,
        "Make Biclusters": 1.0,
        "Make Blobs": 0.8606742900126084,
        "Make Checkerboard": 1.0,
        "Make Circles": 0.5951926741908107,
        "Make Classification": 0.7270165094116525,
        "Make Gaussian Quantiles": 0.4429987156686185,
        "Make Hastie 10 2": 0.46671567379699636,
        "Make Moons": 0.8748844171744609,
        "Make Multilabel Classification": 0.5493134004459377,
        "SpamBase": 0.7785635186669155,
        "Titanic Dataset": 0.6913979030991826,
        "Wine": 0.5381439485489099
      },
      "non_na_count": {
        "Adult Income": 18,
        "Breast Cancer Wisconsin": 18,
        "Credit Card Fraud Detection": 18,
        "Digits": 18,
        "Iris": 18,
        "Make Biclusters": 9,
        "Make Blobs": 18,
        "Make Checkerboard": 10,
        "Make Circles": 18,
        "Make Classification": 18,
        "Make Gaussian Quantiles": 18,
        "Make Hastie 10 2": 18,
        "Make Moons": 18,
        "Make Multilabel Classification": 18,
        "SpamBase": 18,
        "Titanic Dataset": 18,
        "Wine": 18
      },
      "na_count": {
        "Adult Income": 0,
        "Breast Cancer Wisconsin": 0,
        "Credit Card Fraud Detection": 0,
        "Digits": 0,
        "Iris": 0,
        "Make Biclusters": 0,
        "Make Blobs": 0,
        "Make Checkerboard": 0,
        "Make Circles": 0,
        "Make Classification": 0,
        "Make Gaussian Quantiles": 0,
        "Make Hastie 10 2": 0,
        "Make Moons": 0,
        "Make Multilabel Classification": 0,
        "SpamBase": 0,
        "Titanic Dataset": 0,
        "Wine": 0
      }
    }
  },
  "Precision": {
    "aggregated": {
      "std": {
        "mean": 0.10933430643353202,
        "median": 0.13448013999666286,
        "std": 0.08427593452966782,
        "min": 0.0,
        "max": 0.226026938567207,
        "count": 17
      },
      "max": {
        "mean": 0.8285991825981806,
        "median": 0.809116809116809,
        "std": 0.14755064866066864,
        "min": 0.4991397773954566,
        "max": 1.0,
        "count": 17
      },
      "min": {
        "mean": 0.45566501937862197,
        "median": 0.38279250690961203,
        "std": 0.3058276062124098,
        "min": 0.10333333333333333,
        "max": 1.0,
        "count": 17
      },
      "mean": {
        "mean": 0.7062638641305963,
        "median": 0.6861974251530334,
        "std": 0.19685657072359466,
        "min": 0.4237426847861442,
        "max": 1.0,
        "count": 17
      },
      "non_na_count": {
        "mean": 17.0,
        "median": 18.0,
        "std": 2.7439773622801416,
        "min": 9.0,
        "max": 18.0,
        "count": 17
      },
      "na_count": {
        "mean": 0.0,
        "median": 0.0,
        "std": 0.0,
        "min": 0.0,
        "max": 0.0,
        "count": 17
      }
    },
    "distribution": {
      "std": {
        "q25": 0.010953299060538293,
        "q50": 0.13448013999666286,
        "q75": 0.1659685118496866,
        "iqr": 0.15501521278914832,
        "skew": -0.14321354848211804,
        "kurtosis": -1.5159789089277302,
        "range": 0.226026938567207,
        "normality": {
          "shapiro_stat": 0.8644816027766691,
          "shapiro_p_value": 0.01797316936578252,
          "is_normal": false
        }
      },
      "max": {
        "q25": 0.7709273182957393,
        "q50": 0.809116809116809,
        "q75": 0.9722222222222222,
        "iqr": 0.20129490392648286,
        "skew": -0.7777196530756836,
        "kurtosis": 0.03199174029868246,
        "range": 0.5008602226045433,
        "normality": {
          "shapiro_stat": 0.8829612568521253,
          "shapiro_p_value": 0.03552266558563947,
          "is_normal": false
        }
      },
      "min": {
        "q25": 0.22,
        "q50": 0.38279250690961203,
        "q75": 0.5352858151023289,
        "iqr": 0.3152858151023289,
        "skew": 0.7281759024526865,
        "kurtosis": -0.868433217926885,
        "range": 0.8966666666666667,
        "normality": {
          "shapiro_stat": 0.8609211971866038,
          "shapiro_p_value": 0.01580734766248763,
          "is_normal": false
        }
      },
      "mean": {
        "q25": 0.5085419949934866,
        "q50": 0.6861974251530334,
        "q75": 0.8796347685236574,
        "iqr": 0.3710927735301708,
        "skew": 0.13721216171429093,
        "kurtosis": -1.4843110883934294,
        "range": 0.5762573152138558,
        "normality": {
          "shapiro_stat": 0.8959870192793079,
          "shapiro_p_value": 0.05821920239743413,
          "is_normal": true
        }
      },
      "non_na_count": {
        "q25": 18.0,
        "q50": 18.0,
        "q75": 18.0,
        "iqr": 0.0,
        "skew": -2.391601363120143,
        "kurtosis": 3.7568359375,
        "range": 9.0,
        "normality": {
          "shapiro_stat": 0.3930580282482149,
          "shapiro_p_value": 1.8149722429145463e-07,
          "is_normal": false
        }
      },
      "na_count": {
        "q25": 0.0,
        "q50": 0.0,
        "q75": 0.0,
        "iqr": 0.0,
        "skew": null,
        "kurtosis": null,
        "range": 0.0,
        "normality": {
          "shapiro_stat": 1.0,
          "shapiro_p_value": 1.0,
          "is_normal": true
        }
      }
    },
    "datasets": {
      "std": {
        "Adult Income": 0.1591973000365848,
        "Breast Cancer Wisconsin": 0.012373152312242387,
        "Credit Card Fraud Detection": 5.712050337475533e-17,
        "Digits": 0.226026938567207,
        "Iris": 0.16165636224326865,
        "Make Biclusters": 0.0,
        "Make Blobs": 0.22238190218907572,
        "Make Checkerboard": 0.0,
        "Make Circles": 0.09894156018356404,
        "Make Classification": 0.20207335380545755,
        "Make Gaussian Quantiles": 0.2110918887018449,
        "Make Hastie 10 2": 0.10592644243244823,
        "Make Moons": 0.010953299060538293,
        "Make Multilabel Classification": 0.007703010715869775,
        "SpamBase": 0.1659685118496866,
        "Titanic Dataset": 0.13990934727559318,
        "Wine": 0.13448013999666286
      },
      "max": {
        "Adult Income": 0.756125523603937,
        "Breast Cancer Wisconsin": 0.9930555555555556,
        "Credit Card Fraud Detection": 0.4991397773954566,
        "Digits": 0.779079196211886,
        "Iris": 0.9722222222222222,
        "Make Biclusters": 1.0,
        "Make Blobs": 1.0,
        "Make Checkerboard": 1.0,
        "Make Circles": 0.8012048192771084,
        "Make Classification": 0.8519181585677749,
        "Make Gaussian Quantiles": 0.78392821133293,
        "Make Hastie 10 2": 0.7447916666666666,
        "Make Moons": 0.8969450306501858,
        "Make Multilabel Classification": 0.5227686703096539,
        "SpamBase": 0.904963144963145,
        "Titanic Dataset": 0.7709273182957393,
        "Wine": 0.809116809116809
      },
      "min": {
        "Adult Income": 0.38279250690961203,
        "Breast Cancer Wisconsin": 0.9594202898550726,
        "Credit Card Fraud Detection": 0.4991397773954566,
        "Digits": 0.12205450149989258,
        "Iris": 0.4193061840120664,
        "Make Biclusters": 1.0,
        "Make Blobs": 0.10333333333333333,
        "Make Checkerboard": 1.0,
        "Make Circles": 0.5352858151023289,
        "Make Classification": 0.22,
        "Make Gaussian Quantiles": 0.24,
        "Make Hastie 10 2": 0.265,
        "Make Moons": 0.8618272274988693,
        "Make Multilabel Classification": 0.49236373826537766,
        "SpamBase": 0.21195652173913043,
        "Titanic Dataset": 0.3041958041958042,
        "Wine": 0.12962962962962962
      },
      "mean": {
        "Adult Income": 0.4917419138003931,
        "Breast Cancer Wisconsin": 0.9760140796150599,
        "Credit Card Fraud Detection": 0.4991397773954566,
        "Digits": 0.493425795941034,
        "Iris": 0.8796347685236574,
        "Make Biclusters": 1.0,
        "Make Blobs": 0.8746417910695066,
        "Make Checkerboard": 1.0,
        "Make Circles": 0.6680900400786843,
        "Make Classification": 0.7428662689367471,
        "Make Gaussian Quantiles": 0.4237426847861442,
        "Make Hastie 10 2": 0.5634664635713285,
        "Make Moons": 0.882430105828067,
        "Make Multilabel Classification": 0.5085419949934866,
        "SpamBase": 0.8043822486404307,
        "Titanic Dataset": 0.6861974251530334,
        "Wine": 0.5121703318871075
      },
      "non_na_count": {
        "Adult Income": 18,
        "Breast Cancer Wisconsin": 18,
        "Credit Card Fraud Detection": 18,
        "Digits": 18,
        "Iris": 18,
        "Make Biclusters": 9,
        "Make Blobs": 18,
        "Make Checkerboard": 10,
        "Make Circles": 18,
        "Make Classification": 18,
        "Make Gaussian Quantiles": 18,
        "Make Hastie 10 2": 18,
        "Make Moons": 18,
        "Make Multilabel Classification": 18,
        "SpamBase": 18,
        "Titanic Dataset": 18,
        "Wine": 18
      },
      "na_count": {
        "Adult Income": 0,
        "Breast Cancer Wisconsin": 0,
        "Credit Card Fraud Detection": 0,
        "Digits": 0,
        "Iris": 0,
        "Make Biclusters": 0,
        "Make Blobs": 0,
        "Make Checkerboard": 0,
        "Make Circles": 0,
        "Make Classification": 0,
        "Make Gaussian Quantiles": 0,
        "Make Hastie 10 2": 0,
        "Make Moons": 0,
        "Make Multilabel Classification": 0,
        "SpamBase": 0,
        "Titanic Dataset": 0,
        "Wine": 0
      }
    }
  },
  "Recall": {
    "aggregated": {
      "std": {
        "mean": 0.06400969387057975,
        "median": 0.05557386992910127,
        "std": 0.054164773588091394,
        "min": 0.0,
        "max": 0.1591872755475888,
        "count": 17
      },
      "max": {
        "mean": 0.7967786207609082,
        "median": 0.7705041586897984,
        "std": 0.1613842698753262,
        "min": 0.5,
        "max": 1.0,
        "count": 17
      },
      "min": {
        "mean": 0.5818784485968388,
        "median": 0.5,
        "std": 0.21916921263475347,
        "min": 0.28484848484848485,
        "max": 1.0,
        "count": 17
      },
      "mean": {
        "mean": 0.7305469352425993,
        "median": 0.7057334428024082,
        "std": 0.17096337817430382,
        "min": 0.5,
        "max": 1.0,
        "count": 17
      },
      "non_na_count": {
        "mean": 17.0,
        "median": 18.0,
        "std": 2.7439773622801416,
        "min": 9.0,
        "max": 18.0,
        "count": 17
      },
      "na_count": {
        "mean": 0.0,
        "median": 0.0,
        "std": 0.0,
        "min": 0.0,
        "max": 0.0,
        "count": 17
      }
    },
    "distribution": {
      "std": {
        "q25": 0.009584584283230689,
        "q50": 0.05557386992910127,
        "q75": 0.1088417671026122,
        "iqr": 0.0992571828193815,
        "skew": 0.3566461553167765,
        "kurtosis": -1.1978178405026165,
        "range": 0.1591872755475888,
        "normality": {
          "shapiro_stat": 0.9063689013127368,
          "shapiro_p_value": 0.08688183832945341,
          "is_normal": true
        }
      },
      "max": {
        "q25": 0.675,
        "q50": 0.7705041586897984,
        "q75": 0.9629629629629629,
        "iqr": 0.28796296296296287,
        "skew": -0.17763304543431982,
        "kurtosis": -1.2509856453549153,
        "range": 0.5,
        "normality": {
          "shapiro_stat": 0.9231511975572181,
          "shapiro_p_value": 0.16694188443475816,
          "is_normal": true
        }
      },
      "min": {
        "q25": 0.5,
        "q50": 0.5,
        "q75": 0.5925925925925926,
        "iqr": 0.09259259259259256,
        "skew": 0.8288450060344865,
        "kurtosis": -0.4654383357044334,
        "range": 0.7151515151515151,
        "normality": {
          "shapiro_stat": 0.84638232006921,
          "shapiro_p_value": 0.009449457960808054,
          "is_normal": false
        }
      },
      "mean": {
        "q25": 0.5586512832729312,
        "q50": 0.7057334428024082,
        "q75": 0.8755555555555555,
        "iqr": 0.3169042722826243,
        "skew": 0.26269136143290944,
        "kurtosis": -1.3904349081249652,
        "range": 0.5,
        "normality": {
          "shapiro_stat": 0.9029519956615331,
          "shapiro_p_value": 0.07611687788274123,
          "is_normal": true
        }
      },
      "non_na_count": {
        "q25": 18.0,
        "q50": 18.0,
        "q75": 18.0,
        "iqr": 0.0,
        "skew": -2.391601363120143,
        "kurtosis": 3.7568359375,
        "range": 9.0,
        "normality": {
          "shapiro_stat": 0.3930580282482149,
          "shapiro_p_value": 1.8149722429145463e-07,
          "is_normal": false
        }
      },
      "na_count": {
        "q25": 0.0,
        "q50": 0.0,
        "q75": 0.0,
        "iqr": 0.0,
        "skew": null,
        "kurtosis": null,
        "range": 0.0,
        "normality": {
          "shapiro_stat": 1.0,
          "shapiro_p_value": 1.0,
          "is_normal": true
        }
      }
    },
    "datasets": {
      "std": {
        "Adult Income": 0.09036627767644095,
        "Breast Cancer Wisconsin": 0.009584584283230689,
        "Credit Card Fraud Detection": 0.0,
        "Digits": 0.1562576208389419,
        "Iris": 0.1088417671026122,
        "Make Biclusters": 0.0,
        "Make Blobs": 0.1591872755475888,
        "Make Checkerboard": 0.0,
        "Make Circles": 0.051529704613129126,
        "Make Classification": 0.13456377380794768,
        "Make Gaussian Quantiles": 0.05557386992910127,
        "Make Hastie 10 2": 0.027974071670588078,
        "Make Moons": 0.017480147469502515,
        "Make Multilabel Classification": 0.009408577893829779,
        "SpamBase": 0.1122819134231212,
        "Titanic Dataset": 0.0767839428933479,
        "Wine": 0.07833126865047371
      },
      "max": {
        "Adult Income": 0.7237167124717769,
        "Breast Cancer Wisconsin": 0.9883720930232558,
        "Credit Card Fraud Detection": 0.5,
        "Digits": 0.7705041586897984,
        "Iris": 0.9629629629629629,
        "Make Biclusters": 1.0,
        "Make Blobs": 1.0,
        "Make Checkerboard": 1.0,
        "Make Circles": 0.675,
        "Make Classification": 0.8538961038961039,
        "Make Gaussian Quantiles": 0.6410256410256411,
        "Make Hastie 10 2": 0.5599156965074267,
        "Make Moons": 0.895,
        "Make Multilabel Classification": 0.625615763546798,
        "SpamBase": 0.8986937590711176,
        "Titanic Dataset": 0.7600574712643677,
        "Wine": 0.6904761904761904
      },
      "min": {
        "Adult Income": 0.5,
        "Breast Cancer Wisconsin": 0.9534883720930232,
        "Credit Card Fraud Detection": 0.5,
        "Digits": 0.28484848484848485,
        "Iris": 0.5925925925925926,
        "Make Biclusters": 1.0,
        "Make Blobs": 0.3333333333333333,
        "Make Checkerboard": 1.0,
        "Make Circles": 0.5349999999999999,
        "Make Classification": 0.5,
        "Make Gaussian Quantiles": 0.5,
        "Make Hastie 10 2": 0.44861501405058213,
        "Make Moons": 0.8200000000000001,
        "Make Multilabel Classification": 0.5907224958949097,
        "SpamBase": 0.5,
        "Titanic Dataset": 0.5,
        "Wine": 0.3333333333333333
      },
      "mean": {
        "Adult Income": 0.5586512832729312,
        "Breast Cancer Wisconsin": 0.9757524475015469,
        "Credit Card Fraud Detection": 0.5,
        "Digits": 0.5540729622659479,
        "Iris": 0.8748597081930415,
        "Make Biclusters": 1.0,
        "Make Blobs": 0.8778375149342892,
        "Make Checkerboard": 1.0,
        "Make Circles": 0.6163888888888889,
        "Make Classification": 0.764542748917749,
        "Make Gaussian Quantiles": 0.5453614672364673,
        "Make Hastie 10 2": 0.531340603952005,
        "Make Moons": 0.8755555555555555,
        "Make Multilabel Classification": 0.6098795840175152,
        "SpamBase": 0.7864645487286996,
        "Titanic Dataset": 0.7057334428024082,
        "Wine": 0.6428571428571428
      },
      "non_na_count": {
        "Adult Income": 18,
        "Breast Cancer Wisconsin": 18,
        "Credit Card Fraud Detection": 18,
        "Digits": 18,
        "Iris": 18,
        "Make Biclusters": 9,
        "Make Blobs": 18,
        "Make Checkerboard": 10,
        "Make Circles": 18,
        "Make Classification": 18,
        "Make Gaussian Quantiles": 18,
        "Make Hastie 10 2": 18,
        "Make Moons": 18,
        "Make Multilabel Classification": 18,
        "SpamBase": 18,
        "Titanic Dataset": 18,
        "Wine": 18
      },
      "na_count": {
        "Adult Income": 0,
        "Breast Cancer Wisconsin": 0,
        "Credit Card Fraud Detection": 0,
        "Digits": 0,
        "Iris": 0,
        "Make Biclusters": 0,
        "Make Blobs": 0,
        "Make Checkerboard": 0,
        "Make Circles": 0,
        "Make Classification": 0,
        "Make Gaussian Quantiles": 0,
        "Make Hastie 10 2": 0,
        "Make Moons": 0,
        "Make Multilabel Classification": 0,
        "SpamBase": 0,
        "Titanic Dataset": 0,
        "Wine": 0
      }
    }
  },
  "layer_0_bias_gradient_max_val": {
    "aggregated": {
      "std": {
        "mean": 0.8838417900230273,
        "median": 0.21318195619546876,
        "std": 1.8235360184555462,
        "min": 0.001545041124990455,
        "max": 9.015771120317423,
        "count": 26
      },
      "max": {
        "mean": 1.36890090837215,
        "median": 0.2596835643053055,
        "std": 9.525317778914383,
        "min": -29.510942459106445,
        "max": 34.130943298339844,
        "count": 26
      },
      "min": {
        "mean": -1.475818120723366,
        "median": -0.3165779262781143,
        "std": 8.230986730082284,
        "min": -38.957374572753906,
        "max": 13.346758842468262,
        "count": 26
      },
      "mean": {
        "mean": -0.14852970027631113,
        "median": -0.00688711663618354,
        "std": 8.308586427554234,
        "min": -33.95560720231798,
        "max": 22.180018806457518,
        "count": 26
      },
      "non_na_count": {
        "mean": 16.846153846153847,
        "median": 18.0,
        "std": 3.278042423486541,
        "min": 5.0,
        "max": 18.0,
        "count": 26
      },
      "na_count": {
        "mean": 0.0,
        "median": 0.0,
        "std": 0.0,
        "min": 0.0,
        "max": 0.0,
        "count": 26
      }
    },
    "distribution": {
      "std": {
        "q25": 0.09192622372088974,
        "q50": 0.21318195619546876,
        "q75": 0.47371871025032053,
        "iqr": 0.38179248652943076,
        "skew": 3.4710492394773476,
        "kurtosis": 12.337174511259452,
        "range": 9.014226079192433,
        "normality": {
          "shapiro_stat": 0.4927014551582023,
          "shapiro_p_value": 2.1145530952108323e-08,
          "is_normal": false
        }
      },
      "max": {
        "q25": 0.011895436560735106,
        "q50": 0.2596835643053055,
        "q75": 0.7349825799465179,
        "iqr": 0.7230871433857828,
        "skew": 0.4201786552128114,
        "kurtosis": 6.864339399109314,
        "range": 63.64188575744629,
        "normality": {
          "shapiro_stat": 0.5770252673506768,
          "shapiro_p_value": 1.6238883630159013e-07,
          "is_normal": false
        }
      },
      "min": {
        "q25": -1.1265888512134552,
        "q50": -0.3165779262781143,
        "q75": -0.0006197463953867555,
        "iqr": 1.1259691048180684,
        "skew": -3.387767675653942,
        "kurtosis": 13.99247611914014,
        "range": 52.30413341522217,
        "normality": {
          "shapiro_stat": 0.4838859609720727,
          "shapiro_p_value": 1.7309271111227165e-08,
          "is_normal": false
        }
      },
      "mean": {
        "q25": -0.0419439888986138,
        "q50": -0.00688711663618354,
        "q75": 0.04219909268106095,
        "iqr": 0.08414308157967476,
        "skew": -1.7568676250582602,
        "kurtosis": 9.665549716906188,
        "range": 56.135626008775496,
        "normality": {
          "shapiro_stat": 0.530273146844813,
          "shapiro_p_value": 5.094598140911353e-08,
          "is_normal": false
        }
      },
      "non_na_count": {
        "q25": 18.0,
        "q50": 18.0,
        "q75": 18.0,
        "iqr": 0.0,
        "skew": -2.6543641420419353,
        "kurtosis": 5.567320101302181,
        "range": 13.0,
        "normality": {
          "shapiro_stat": 0.3932007646829846,
          "shapiro_p_value": 2.487079100575088e-09,
          "is_normal": false
        }
      },
      "na_count": {
        "q25": 0.0,
        "q50": 0.0,
        "q75": 0.0,
        "iqr": 0.0,
        "skew": null,
        "kurtosis": null,
        "range": 0.0,
        "normality": {
          "shapiro_stat": 1.0,
          "shapiro_p_value": 1.0,
          "is_normal": true
        }
      }
    },
    "datasets": {
      "std": {
        "Adult Income": 0.14402331008150826,
        "Airfoil Self-Noise": 2.4256536907601656,
        "Breast Cancer Wisconsin": 0.0969908018541376,
        "Concrete Compressive Strength": 2.6636566007446882,
        "Credit Card Fraud Detection": 0.006903603950084256,
        "Diabetes": 9.015771120317423,
        "Digits": 0.14024109069494617,
        "Energy Efficiency": 0.4524331245327551,
        "Iris": 0.5822697710496411,
        "Make Biclusters": 0.04247514105293884,
        "Make Blobs": 0.47388883827980477,
        "Make Checkerboard": 0.001545041124990455,
        "Make Circles": 0.07454626922032428,
        "Make Classification": 0.21009638789877108,
        "Make Friedman1": 1.735289019488432,
        "Make Friedman3": 0.2781992861178592,
        "Make Gaussian Quantiles": 0.09023803100980712,
        "Make Hastie 10 2": 0.09980903616927933,
        "Make Moons": 0.4172503479440438,
        "Make Multilabel Classification": 0.16831865185650377,
        "Make Regression": 2.8252509559220425,
        "Make S Curve": 0.4732083261618677,
        "Make Swiss Roll": 0.21626752449216646,
        "SpamBase": 0.06985623464774522,
        "Titanic Dataset": 0.26136189510065577,
        "Wine": 0.014342440126131466
      },
      "max": {
        "Adult Income": 0.20854905247688293,
        "Airfoil Self-Noise": -29.510942459106445,
        "Breast Cancer Wisconsin": 0.3743673861026764,
        "Concrete Compressive Strength": 15.633970260620117,
        "Credit Card Fraud Detection": 0.02707170695066452,
        "Diabetes": 34.130943298339844,
        "Digits": 0.4338417649269104,
        "Energy Efficiency": -0.8023902773857117,
        "Iris": 1.1482571363449097,
        "Make Biclusters": 0.12767693400382996,
        "Make Blobs": 0.9689228534698486,
        "Make Checkerboard": 0.004892517812550068,
        "Make Circles": 0.09457851946353912,
        "Make Classification": 0.4028857946395874,
        "Make Friedman1": -1.3803088665008545,
        "Make Friedman3": -0.19855347275733948,
        "Make Gaussian Quantiles": 0.12795497477054596,
        "Make Hastie 10 2": 0.10960487276315689,
        "Make Moons": 0.7606877088546753,
        "Make Multilabel Classification": 0.6578671932220459,
        "Make Regression": 10.955954551696777,
        "Make S Curve": 0.8154271841049194,
        "Make Swiss Roll": -0.2621232569217682,
        "SpamBase": 0.310818076133728,
        "Titanic Dataset": 0.44463348388671875,
        "Wine": 0.0068366797640919685
      },
      "min": {
        "Adult Income": -0.408223032951355,
        "Airfoil Self-Noise": -38.957374572753906,
        "Breast Cancer Wisconsin": 5.013047029933659e-06,
        "Concrete Compressive Strength": 6.534923553466797,
        "Credit Card Fraud Detection": 0.0049185482785105705,
        "Diabetes": 13.346758842468262,
        "Digits": -0.0405520424246788,
        "Energy Efficiency": -2.75715970993042,
        "Iris": -1.0776121616363525,
        "Make Biclusters": -0.0007023378275334835,
        "Make Blobs": -1.2508809566497803,
        "Make Checkerboard": -0.0005922159180045128,
        "Make Circles": -0.19856062531471252,
        "Make Classification": -0.4102100133895874,
        "Make Friedman1": -7.9478960037231445,
        "Make Friedman3": -1.1429144144058228,
        "Make Gaussian Quantiles": -0.2789566218852997,
        "Make Hastie 10 2": -0.35419923067092896,
        "Make Moons": -0.7151721119880676,
        "Make Multilabel Classification": -0.15563149750232697,
        "Make Regression": 0.45326319336891174,
        "Make S Curve": -1.4042459726333618,
        "Make Swiss Roll": -1.1478819847106934,
        "SpamBase": 0.01111305970698595,
        "Titanic Dataset": -0.41439661383628845,
        "Wine": -0.0590912289917469
      },
      "mean": {
        "Adult Income": -0.017339686630293727,
        "Airfoil Self-Noise": -33.95560720231798,
        "Breast Cancer Wisconsin": 0.04415631776724796,
        "Concrete Compressive Strength": 10.721148543887669,
        "Credit Card Fraud Detection": 0.01253329874533746,
        "Diabetes": 22.180018806457518,
        "Digits": 0.09934472667535171,
        "Energy Efficiency": -1.834767093261083,
        "Iris": -0.01892190266193615,
        "Make Biclusters": 0.014426562881756885,
        "Make Blobs": 0.036327417422499925,
        "Make Checkerboard": 0.0005559428202104755,
        "Make Circles": -0.029229158186353743,
        "Make Classification": -0.0448765610344708,
        "Make Friedman1": -3.8038384450806513,
        "Make Friedman3": -0.5697667259309027,
        "Make Gaussian Quantiles": -0.008297634272215268,
        "Make Hastie 10 2": -0.033146272491042815,
        "Make Moons": 0.07827767248575886,
        "Make Multilabel Classification": 0.020325833110190514,
        "Make Regression": 4.097258350915379,
        "Make S Curve": -0.1870749032435318,
        "Make Swiss Roll": -0.7265661905209223,
        "SpamBase": 0.07987739859769742,
        "Titanic Dataset": -0.011114704319172435,
        "Wine": -0.005476599000151812
      },
      "non_na_count": {
        "Adult Income": 18,
        "Airfoil Self-Noise": 18,
        "Breast Cancer Wisconsin": 18,
        "Concrete Compressive Strength": 18,
        "Credit Card Fraud Detection": 18,
        "Diabetes": 5,
        "Digits": 18,
        "Energy Efficiency": 18,
        "Iris": 18,
        "Make Biclusters": 9,
        "Make Blobs": 18,
        "Make Checkerboard": 10,
        "Make Circles": 18,
        "Make Classification": 18,
        "Make Friedman1": 18,
        "Make Friedman3": 18,
        "Make Gaussian Quantiles": 18,
        "Make Hastie 10 2": 18,
        "Make Moons": 18,
        "Make Multilabel Classification": 18,
        "Make Regression": 18,
        "Make S Curve": 18,
        "Make Swiss Roll": 18,
        "SpamBase": 18,
        "Titanic Dataset": 18,
        "Wine": 18
      },
      "na_count": {
        "Adult Income": 0,
        "Airfoil Self-Noise": 0,
        "Breast Cancer Wisconsin": 0,
        "Concrete Compressive Strength": 0,
        "Credit Card Fraud Detection": 0,
        "Diabetes": 0,
        "Digits": 0,
        "Energy Efficiency": 0,
        "Iris": 0,
        "Make Biclusters": 0,
        "Make Blobs": 0,
        "Make Checkerboard": 0,
        "Make Circles": 0,
        "Make Classification": 0,
        "Make Friedman1": 0,
        "Make Friedman3": 0,
        "Make Gaussian Quantiles": 0,
        "Make Hastie 10 2": 0,
        "Make Moons": 0,
        "Make Multilabel Classification": 0,
        "Make Regression": 0,
        "Make S Curve": 0,
        "Make Swiss Roll": 0,
        "SpamBase": 0,
        "Titanic Dataset": 0,
        "Wine": 0
      }
    }
  },
  "layer_0_bias_gradient_mean_val": {
    "aggregated": {
      "std": {
        "mean": 0.5480103152347567,
        "median": 0.21318195619546876,
        "std": 0.9128801764772327,
        "min": 0.0014360621103549141,
        "max": 4.11024855806247,
        "count": 26
      },
      "max": {
        "mean": -0.3481839814115889,
        "median": 0.12739700824022293,
        "std": 6.573280565938663,
        "min": -29.510942459106445,
        "max": 15.619731903076172,
        "count": 26
      },
      "min": {
        "mean": -2.250539054381079,
        "median": -0.4092165231704712,
        "std": 7.676803520561318,
        "min": -38.957374572753906,
        "max": 6.24301290512085,
        "count": 26
      },
      "mean": {
        "mean": -1.222320928392275,
        "median": -0.009706169295693852,
        "std": 6.913071049708697,
        "min": -33.95560720231798,
        "max": 10.171932697296143,
        "count": 26
      },
      "non_na_count": {
        "mean": 16.846153846153847,
        "median": 18.0,
        "std": 3.278042423486541,
        "min": 5.0,
        "max": 18.0,
        "count": 26
      },
      "na_count": {
        "mean": 0.0,
        "median": 0.0,
        "std": 0.0,
        "min": 0.0,
        "max": 0.0,
        "count": 26
      }
    },
    "distribution": {
      "std": {
        "q25": 0.056711704822780505,
        "q50": 0.21318195619546876,
        "q75": 0.47371871025032053,
        "iqr": 0.41700700542754005,
        "skew": 2.682360535706769,
        "kurtosis": 6.8569405939460015,
        "range": 4.108812495952115,
        "normality": {
          "shapiro_stat": 0.5997668404123772,
          "shapiro_p_value": 2.938512245658716e-07,
          "is_normal": false
        }
      },
      "max": {
        "q25": 0.005378558300435543,
        "q50": 0.12739700824022293,
        "q75": 0.7006873190402985,
        "iqr": 0.6953087607398629,
        "skew": -2.805271495873782,
        "kurtosis": 13.240815187437018,
        "range": 45.13067436218262,
        "normality": {
          "shapiro_stat": 0.43384863467193924,
          "shapiro_p_value": 5.785043876559492e-09,
          "is_normal": false
        }
      },
      "min": {
        "q25": -1.2251312136650085,
        "q50": -0.4092165231704712,
        "q75": -0.08050581999123096,
        "iqr": 1.1446253936737776,
        "skew": -4.165703427990048,
        "kurtosis": 17.18631468390884,
        "range": 45.200387477874756,
        "normality": {
          "shapiro_stat": 0.4011691130720444,
          "shapiro_p_value": 2.9257892550628427e-09,
          "is_normal": false
        }
      },
      "mean": {
        "q25": -0.07660746151426186,
        "q50": -0.009706169295693852,
        "q75": 0.0018898787396513703,
        "iqr": 0.07849734025391322,
        "skew": -3.9103438024961004,
        "kurtosis": 16.619383702308635,
        "range": 44.12753989961412,
        "normality": {
          "shapiro_stat": 0.374116286356199,
          "shapiro_p_value": 1.6950894829877893e-09,
          "is_normal": false
        }
      },
      "non_na_count": {
        "q25": 18.0,
        "q50": 18.0,
        "q75": 18.0,
        "iqr": 0.0,
        "skew": -2.6543641420419353,
        "kurtosis": 5.567320101302181,
        "range": 13.0,
        "normality": {
          "shapiro_stat": 0.3932007646829846,
          "shapiro_p_value": 2.487079100575088e-09,
          "is_normal": false
        }
      },
      "na_count": {
        "q25": 0.0,
        "q50": 0.0,
        "q75": 0.0,
        "iqr": 0.0,
        "skew": null,
        "kurtosis": null,
        "range": 0.0,
        "normality": {
          "shapiro_stat": 1.0,
          "shapiro_p_value": 1.0,
          "is_normal": true
        }
      }
    },
    "datasets": {
      "std": {
        "Adult Income": 0.14402331008150826,
        "Airfoil Self-Noise": 2.4256536907601656,
        "Breast Cancer Wisconsin": 0.043781663886301725,
        "Concrete Compressive Strength": 1.01380657518649,
        "Credit Card Fraud Detection": 0.0014360621103549141,
        "Diabetes": 4.11024855806247,
        "Digits": 0.05076685002359924,
        "Energy Efficiency": 0.459833617576037,
        "Iris": 0.5822697710496411,
        "Make Biclusters": 0.04247514105293884,
        "Make Blobs": 0.47388883827980477,
        "Make Checkerboard": 0.001545041124990455,
        "Make Circles": 0.07454626922032428,
        "Make Classification": 0.21009638789877108,
        "Make Friedman1": 1.937270399546407,
        "Make Friedman3": 0.2781992861178592,
        "Make Gaussian Quantiles": 0.09023803100980712,
        "Make Hastie 10 2": 0.09980903616927933,
        "Make Moons": 0.4172503479440438,
        "Make Multilabel Classification": 0.15016312581507582,
        "Make Regression": 0.6580821435884058,
        "Make S Curve": 0.4732083261618677,
        "Make Swiss Roll": 0.21626752449216646,
        "SpamBase": 0.017703863718577153,
        "Titanic Dataset": 0.26136189510065577,
        "Wine": 0.014342440126131466
      },
      "max": {
        "Adult Income": 0.20854905247688293,
        "Airfoil Self-Noise": -29.510942459106445,
        "Breast Cancer Wisconsin": 0.11937249451875687,
        "Concrete Compressive Strength": 1.3649120330810547,
        "Credit Card Fraud Detection": 0.004864395130425692,
        "Diabetes": 15.619731903076172,
        "Digits": 0.1271170824766159,
        "Energy Efficiency": -1.4837465286254883,
        "Iris": 1.1482571363449097,
        "Make Biclusters": 0.12767693400382996,
        "Make Blobs": 0.9689228534698486,
        "Make Checkerboard": 0.004892517812550068,
        "Make Circles": 0.09457851946353912,
        "Make Classification": 0.4028857946395874,
        "Make Friedman1": -1.545137882232666,
        "Make Friedman3": -0.19855347275733948,
        "Make Gaussian Quantiles": 0.12795497477054596,
        "Make Hastie 10 2": 0.10960487276315689,
        "Make Moons": 0.7606877088546753,
        "Make Multilabel Classification": 0.520686149597168,
        "Make Regression": 0.9314159154891968,
        "Make S Curve": 0.8154271841049194,
        "Make Swiss Roll": -0.2621232569217682,
        "SpamBase": 0.03871239721775055,
        "Titanic Dataset": 0.44463348388671875,
        "Wine": 0.0068366797640919685
      },
      "min": {
        "Adult Income": -0.408223032951355,
        "Airfoil Self-Noise": -38.957374572753906,
        "Breast Cancer Wisconsin": -0.1332852840423584,
        "Concrete Compressive Strength": -2.3479199409484863,
        "Credit Card Fraud Detection": 0.00038903989479877055,
        "Diabetes": 6.24301290512085,
        "Digits": -0.06291266530752182,
        "Energy Efficiency": -3.2704267501831055,
        "Iris": -1.0776121616363525,
        "Make Biclusters": -0.0007023378275334835,
        "Make Blobs": -1.2508809566497803,
        "Make Checkerboard": -0.0005922159180045128,
        "Make Circles": -0.19856062531471252,
        "Make Classification": -0.4102100133895874,
        "Make Friedman1": -8.86111068725586,
        "Make Friedman3": -1.1429144144058228,
        "Make Gaussian Quantiles": -0.2789566218852997,
        "Make Hastie 10 2": -0.35419923067092896,
        "Make Moons": -0.7151721119880676,
        "Make Multilabel Classification": -0.26642897725105286,
        "Make Regression": -1.9735913276672363,
        "Make S Curve": -1.4042459726333618,
        "Make Swiss Roll": -1.1478819847106934,
        "SpamBase": -0.020727630704641342,
        "Titanic Dataset": -0.41439661383628845,
        "Wine": -0.0590912289917469
      },
      "mean": {
        "Adult Income": -0.017339686630293727,
        "Airfoil Self-Noise": -33.95560720231798,
        "Breast Cancer Wisconsin": 0.0016534067779300837,
        "Concrete Compressive Strength": 0.16528048780229357,
        "Credit Card Fraud Detection": 0.0019392468594661397,
        "Diabetes": 10.171932697296143,
        "Digits": 0.014964708579807647,
        "Energy Efficiency": -2.181691666444143,
        "Iris": -0.01892190266193615,
        "Make Biclusters": 0.014426562881756885,
        "Make Blobs": 0.036327417422499925,
        "Make Checkerboard": 0.0005559428202104755,
        "Make Circles": -0.029229158186353743,
        "Make Classification": -0.0448765610344708,
        "Make Friedman1": -4.387899822658962,
        "Make Friedman3": -0.5697667259309027,
        "Make Gaussian Quantiles": -0.008297634272215268,
        "Make Hastie 10 2": -0.033146272491042815,
        "Make Moons": 0.07827767248575886,
        "Make Multilabel Classification": -0.0032505974522791803,
        "Make Regression": -0.08718442834085888,
        "Make S Curve": -0.1870749032435318,
        "Make Swiss Roll": -0.7265661905209223,
        "SpamBase": 0.0017417743802070618,
        "Titanic Dataset": -0.011114704319172435,
        "Wine": -0.005476599000151812
      },
      "non_na_count": {
        "Adult Income": 18,
        "Airfoil Self-Noise": 18,
        "Breast Cancer Wisconsin": 18,
        "Concrete Compressive Strength": 18,
        "Credit Card Fraud Detection": 18,
        "Diabetes": 5,
        "Digits": 18,
        "Energy Efficiency": 18,
        "Iris": 18,
        "Make Biclusters": 9,
        "Make Blobs": 18,
        "Make Checkerboard": 10,
        "Make Circles": 18,
        "Make Classification": 18,
        "Make Friedman1": 18,
        "Make Friedman3": 18,
        "Make Gaussian Quantiles": 18,
        "Make Hastie 10 2": 18,
        "Make Moons": 18,
        "Make Multilabel Classification": 18,
        "Make Regression": 18,
        "Make S Curve": 18,
        "Make Swiss Roll": 18,
        "SpamBase": 18,
        "Titanic Dataset": 18,
        "Wine": 18
      },
      "na_count": {
        "Adult Income": 0,
        "Airfoil Self-Noise": 0,
        "Breast Cancer Wisconsin": 0,
        "Concrete Compressive Strength": 0,
        "Credit Card Fraud Detection": 0,
        "Diabetes": 0,
        "Digits": 0,
        "Energy Efficiency": 0,
        "Iris": 0,
        "Make Biclusters": 0,
        "Make Blobs": 0,
        "Make Checkerboard": 0,
        "Make Circles": 0,
        "Make Classification": 0,
        "Make Friedman1": 0,
        "Make Friedman3": 0,
        "Make Gaussian Quantiles": 0,
        "Make Hastie 10 2": 0,
        "Make Moons": 0,
        "Make Multilabel Classification": 0,
        "Make Regression": 0,
        "Make S Curve": 0,
        "Make Swiss Roll": 0,
        "SpamBase": 0,
        "Titanic Dataset": 0,
        "Wine": 0
      }
    }
  },
  "layer_0_bias_gradient_min_val": {
    "aggregated": {
      "std": {
        "mean": 0.660006953388334,
        "median": 0.21318195619546876,
        "std": 1.0420592350251459,
        "min": 0.001545041124990455,
        "max": 3.6921055448470024,
        "count": 26
      },
      "max": {
        "mean": -1.3844813447814466,
        "median": 0.005864598788321018,
        "std": 5.829103689384565,
        "min": -29.510942459106445,
        "max": 1.1482571363449097,
        "count": 26
      },
      "min": {
        "mean": -3.8071493197841426,
        "median": -0.4616609066724777,
        "std": 8.373629030868486,
        "min": -38.957374572753906,
        "max": -0.0005922159180045128,
        "count": 26
      },
      "mean": {
        "mean": -2.295689753833529,
        "median": -0.03793648779234597,
        "std": 6.7298613916990275,
        "min": -33.95560720231798,
        "max": 0.07827767248575886,
        "count": 26
      },
      "non_na_count": {
        "mean": 16.846153846153847,
        "median": 18.0,
        "std": 3.278042423486541,
        "min": 5.0,
        "max": 18.0,
        "count": 26
      },
      "na_count": {
        "mean": 0.0,
        "median": 0.0,
        "std": 0.0,
        "min": 0.0,
        "max": 0.0,
        "count": 26
      }
    },
    "distribution": {
      "std": {
        "q25": 0.078469209667695,
        "q50": 0.21318195619546876,
        "q75": 0.555174537857182,
        "iqr": 0.47670532818948697,
        "skew": 1.9940727529860385,
        "kurtosis": 2.6104748099923816,
        "range": 3.6905605037220117,
        "normality": {
          "shapiro_stat": 0.625155391994719,
          "shapiro_p_value": 5.842296734977031e-07,
          "is_normal": false
        }
      },
      "max": {
        "q25": -0.246230810880661,
        "q50": 0.005864598788321018,
        "q75": 0.33976611495018005,
        "iqr": 0.5859969258308411,
        "skew": -4.33951706663369,
        "kurtosis": 17.894647136632734,
        "range": 30.659199595451355,
        "normality": {
          "shapiro_stat": 0.3481539003289086,
          "shapiro_p_value": 1.0187675636215494e-09,
          "is_normal": false
        }
      },
      "min": {
        "q25": -1.3659047186374664,
        "q50": -0.4616609066724777,
        "q75": -0.24478411674499512,
        "iqr": 1.1211206018924713,
        "skew": -3.0937829840507853,
        "kurtosis": 9.425604384353527,
        "range": 38.9567823568359,
        "normality": {
          "shapiro_stat": 0.4948465231350453,
          "shapiro_p_value": 2.2208615790102953e-08,
          "is_normal": false
        }
      },
      "mean": {
        "q25": -0.6873663243734174,
        "q50": -0.03793648779234597,
        "q75": -0.009001901783954559,
        "iqr": 0.6783644225894628,
        "skew": -4.04692143639716,
        "kurtosis": 15.929331322154571,
        "range": 34.03388487480374,
        "normality": {
          "shapiro_stat": 0.3810967212655485,
          "shapiro_p_value": 1.94846246414128e-09,
          "is_normal": false
        }
      },
      "non_na_count": {
        "q25": 18.0,
        "q50": 18.0,
        "q75": 18.0,
        "iqr": 0.0,
        "skew": -2.6543641420419353,
        "kurtosis": 5.567320101302181,
        "range": 13.0,
        "normality": {
          "shapiro_stat": 0.3932007646829846,
          "shapiro_p_value": 2.487079100575088e-09,
          "is_normal": false
        }
      },
      "na_count": {
        "q25": 0.0,
        "q50": 0.0,
        "q75": 0.0,
        "iqr": 0.0,
        "skew": null,
        "kurtosis": null,
        "range": 0.0,
        "normality": {
          "shapiro_stat": 1.0,
          "shapiro_p_value": 1.0,
          "is_normal": true
        }
      }
    },
    "datasets": {
      "std": {
        "Adult Income": 0.14402331008150826,
        "Airfoil Self-Noise": 2.4256536907601656,
        "Breast Cancer Wisconsin": 0.12166464275836034,
        "Concrete Compressive Strength": 3.551362009581149,
        "Credit Card Fraud Detection": 0.0032520922313926254,
        "Diabetes": 0.8222323733010006,
        "Digits": 0.057259132153570674,
        "Energy Efficiency": 0.6719713050301597,
        "Iris": 0.5822697710496411,
        "Make Biclusters": 0.04247514105293884,
        "Make Blobs": 0.47388883827980477,
        "Make Checkerboard": 0.001545041124990455,
        "Make Circles": 0.07454626922032428,
        "Make Classification": 0.21009638789877108,
        "Make Friedman1": 2.2401256839019026,
        "Make Friedman3": 0.2781992861178592,
        "Make Gaussian Quantiles": 0.09023803100980712,
        "Make Hastie 10 2": 0.09980903616927933,
        "Make Moons": 0.4172503479440438,
        "Make Multilabel Classification": 0.14081497173259303,
        "Make Regression": 3.6921055448470024,
        "Make S Curve": 0.4732083261618677,
        "Make Swiss Roll": 0.21626752449216646,
        "SpamBase": 0.054217695969596594,
        "Titanic Dataset": 0.26136189510065577,
        "Wine": 0.014342440126131466
      },
      "max": {
        "Adult Income": 0.20854905247688293,
        "Airfoil Self-Noise": -29.510942459106445,
        "Breast Cancer Wisconsin": -0.00010877681052079424,
        "Concrete Compressive Strength": -7.241951942443848,
        "Credit Card Fraud Detection": -0.004244096111506224,
        "Diabetes": -0.8607334494590759,
        "Digits": 0.00023032751050777733,
        "Energy Efficiency": -1.5503416061401367,
        "Iris": 1.1482571363449097,
        "Make Biclusters": 0.12767693400382996,
        "Make Blobs": 0.9689228534698486,
        "Make Checkerboard": 0.004892517812550068,
        "Make Circles": 0.09457851946353912,
        "Make Classification": 0.4028857946395874,
        "Make Friedman1": -1.5575048923492432,
        "Make Friedman3": -0.19855347275733948,
        "Make Gaussian Quantiles": 0.12795497477054596,
        "Make Hastie 10 2": 0.10960487276315689,
        "Make Moons": 0.7606877088546753,
        "Make Multilabel Classification": 0.3835051357746124,
        "Make Regression": -0.38772010803222656,
        "Make S Curve": 0.8154271841049194,
        "Make Swiss Roll": -0.2621232569217682,
        "SpamBase": -0.026934079825878143,
        "Titanic Dataset": 0.44463348388671875,
        "Wine": 0.0068366797640919685
      },
      "min": {
        "Adult Income": -0.408223032951355,
        "Airfoil Self-Noise": -38.957374572753906,
        "Breast Cancer Wisconsin": -0.508925199508667,
        "Concrete Compressive Strength": -18.18796730041504,
        "Credit Card Fraud Detection": -0.016561536118388176,
        "Diabetes": -2.8914785385131836,
        "Digits": -0.2298801988363266,
        "Energy Efficiency": -4.0419721603393555,
        "Iris": -1.0776121616363525,
        "Make Biclusters": -0.0007023378275334835,
        "Make Blobs": -1.2508809566497803,
        "Make Checkerboard": -0.0005922159180045128,
        "Make Circles": -0.19856062531471252,
        "Make Classification": -0.4102100133895874,
        "Make Friedman1": -9.77432632446289,
        "Make Friedman3": -1.1429144144058228,
        "Make Gaussian Quantiles": -0.2789566218852997,
        "Make Hastie 10 2": -0.35419923067092896,
        "Make Moons": -0.7151721119880676,
        "Make Multilabel Classification": -0.37722647190093994,
        "Make Regression": -14.90313720703125,
        "Make S Curve": -1.4042459726333618,
        "Make Swiss Roll": -1.1478819847106934,
        "SpamBase": -0.23339328169822693,
        "Titanic Dataset": -0.41439661383628845,
        "Wine": -0.0590912289917469
      },
      "mean": {
        "Adult Income": -0.017339686630293727,
        "Airfoil Self-Noise": -33.95560720231798,
        "Breast Cancer Wisconsin": -0.04272670309364912,
        "Concrete Compressive Strength": -10.390587568283081,
        "Credit Card Fraud Detection": -0.008084289031103253,
        "Diabetes": -1.8361532807350158,
        "Digits": -0.057126189269992106,
        "Energy Efficiency": -2.5286162429385715,
        "Iris": -0.01892190266193615,
        "Make Biclusters": 0.014426562881756885,
        "Make Blobs": 0.036327417422499925,
        "Make Checkerboard": 0.0005559428202104755,
        "Make Circles": -0.029229158186353743,
        "Make Classification": -0.0448765610344708,
        "Make Friedman1": -4.971961299578349,
        "Make Friedman3": -0.5697667259309027,
        "Make Gaussian Quantiles": -0.008297634272215268,
        "Make Hastie 10 2": -0.033146272491042815,
        "Make Moons": 0.07827767248575886,
        "Make Multilabel Classification": -0.02682702772371057,
        "Make Regression": -4.2716272042857275,
        "Make S Curve": -0.1870749032435318,
        "Make Swiss Roll": -0.7265661905209223,
        "SpamBase": -0.076393849733803,
        "Titanic Dataset": -0.011114704319172435,
        "Wine": -0.005476599000151812
      },
      "non_na_count": {
        "Adult Income": 18,
        "Airfoil Self-Noise": 18,
        "Breast Cancer Wisconsin": 18,
        "Concrete Compressive Strength": 18,
        "Credit Card Fraud Detection": 18,
        "Diabetes": 5,
        "Digits": 18,
        "Energy Efficiency": 18,
        "Iris": 18,
        "Make Biclusters": 9,
        "Make Blobs": 18,
        "Make Checkerboard": 10,
        "Make Circles": 18,
        "Make Classification": 18,
        "Make Friedman1": 18,
        "Make Friedman3": 18,
        "Make Gaussian Quantiles": 18,
        "Make Hastie 10 2": 18,
        "Make Moons": 18,
        "Make Multilabel Classification": 18,
        "Make Regression": 18,
        "Make S Curve": 18,
        "Make Swiss Roll": 18,
        "SpamBase": 18,
        "Titanic Dataset": 18,
        "Wine": 18
      },
      "na_count": {
        "Adult Income": 0,
        "Airfoil Self-Noise": 0,
        "Breast Cancer Wisconsin": 0,
        "Concrete Compressive Strength": 0,
        "Credit Card Fraud Detection": 0,
        "Diabetes": 0,
        "Digits": 0,
        "Energy Efficiency": 0,
        "Iris": 0,
        "Make Biclusters": 0,
        "Make Blobs": 0,
        "Make Checkerboard": 0,
        "Make Circles": 0,
        "Make Classification": 0,
        "Make Friedman1": 0,
        "Make Friedman3": 0,
        "Make Gaussian Quantiles": 0,
        "Make Hastie 10 2": 0,
        "Make Moons": 0,
        "Make Multilabel Classification": 0,
        "Make Regression": 0,
        "Make S Curve": 0,
        "Make Swiss Roll": 0,
        "SpamBase": 0,
        "Titanic Dataset": 0,
        "Wine": 0
      }
    }
  },
  "layer_0_bias_gradient_spectral_hist_bins_count": {
    "aggregated": {
      "std": {
        "mean": 0.0,
        "median": 0.0,
        "std": 0.0,
        "min": 0.0,
        "max": 0.0,
        "count": 26
      },
      "max": {
        "mean": 21.0,
        "median": 21.0,
        "std": 0.0,
        "min": 21.0,
        "max": 21.0,
        "count": 26
      },
      "min": {
        "mean": 21.0,
        "median": 21.0,
        "std": 0.0,
        "min": 21.0,
        "max": 21.0,
        "count": 26
      },
      "mean": {
        "mean": 21.0,
        "median": 21.0,
        "std": 0.0,
        "min": 21.0,
        "max": 21.0,
        "count": 26
      },
      "non_na_count": {
        "mean": 16.846153846153847,
        "median": 18.0,
        "std": 3.278042423486541,
        "min": 5.0,
        "max": 18.0,
        "count": 26
      },
      "na_count": {
        "mean": 0.0,
        "median": 0.0,
        "std": 0.0,
        "min": 0.0,
        "max": 0.0,
        "count": 26
      }
    },
    "distribution": {
      "std": {
        "q25": 0.0,
        "q50": 0.0,
        "q75": 0.0,
        "iqr": 0.0,
        "skew": null,
        "kurtosis": null,
        "range": 0.0,
        "normality": {
          "shapiro_stat": 1.0,
          "shapiro_p_value": 1.0,
          "is_normal": true
        }
      },
      "max": {
        "q25": 21.0,
        "q50": 21.0,
        "q75": 21.0,
        "iqr": 0.0,
        "skew": null,
        "kurtosis": null,
        "range": 0.0,
        "normality": {
          "shapiro_stat": 1.0,
          "shapiro_p_value": 1.0,
          "is_normal": true
        }
      },
      "min": {
        "q25": 21.0,
        "q50": 21.0,
        "q75": 21.0,
        "iqr": 0.0,
        "skew": null,
        "kurtosis": null,
        "range": 0.0,
        "normality": {
          "shapiro_stat": 1.0,
          "shapiro_p_value": 1.0,
          "is_normal": true
        }
      },
      "mean": {
        "q25": 21.0,
        "q50": 21.0,
        "q75": 21.0,
        "iqr": 0.0,
        "skew": null,
        "kurtosis": null,
        "range": 0.0,
        "normality": {
          "shapiro_stat": 1.0,
          "shapiro_p_value": 1.0,
          "is_normal": true
        }
      },
      "non_na_count": {
        "q25": 18.0,
        "q50": 18.0,
        "q75": 18.0,
        "iqr": 0.0,
        "skew": -2.6543641420419353,
        "kurtosis": 5.567320101302181,
        "range": 13.0,
        "normality": {
          "shapiro_stat": 0.3932007646829846,
          "shapiro_p_value": 2.487079100575088e-09,
          "is_normal": false
        }
      },
      "na_count": {
        "q25": 0.0,
        "q50": 0.0,
        "q75": 0.0,
        "iqr": 0.0,
        "skew": null,
        "kurtosis": null,
        "range": 0.0,
        "normality": {
          "shapiro_stat": 1.0,
          "shapiro_p_value": 1.0,
          "is_normal": true
        }
      }
    },
    "datasets": {
      "std": {
        "Adult Income": 0.0,
        "Airfoil Self-Noise": 0.0,
        "Breast Cancer Wisconsin": 0.0,
        "Concrete Compressive Strength": 0.0,
        "Credit Card Fraud Detection": 0.0,
        "Diabetes": 0.0,
        "Digits": 0.0,
        "Energy Efficiency": 0.0,
        "Iris": 0.0,
        "Make Biclusters": 0.0,
        "Make Blobs": 0.0,
        "Make Checkerboard": 0.0,
        "Make Circles": 0.0,
        "Make Classification": 0.0,
        "Make Friedman1": 0.0,
        "Make Friedman3": 0.0,
        "Make Gaussian Quantiles": 0.0,
        "Make Hastie 10 2": 0.0,
        "Make Moons": 0.0,
        "Make Multilabel Classification": 0.0,
        "Make Regression": 0.0,
        "Make S Curve": 0.0,
        "Make Swiss Roll": 0.0,
        "SpamBase": 0.0,
        "Titanic Dataset": 0.0,
        "Wine": 0.0
      },
      "max": {
        "Adult Income": 21.0,
        "Airfoil Self-Noise": 21.0,
        "Breast Cancer Wisconsin": 21.0,
        "Concrete Compressive Strength": 21.0,
        "Credit Card Fraud Detection": 21.0,
        "Diabetes": 21.0,
        "Digits": 21.0,
        "Energy Efficiency": 21.0,
        "Iris": 21.0,
        "Make Biclusters": 21.0,
        "Make Blobs": 21.0,
        "Make Checkerboard": 21.0,
        "Make Circles": 21.0,
        "Make Classification": 21.0,
        "Make Friedman1": 21.0,
        "Make Friedman3": 21.0,
        "Make Gaussian Quantiles": 21.0,
        "Make Hastie 10 2": 21.0,
        "Make Moons": 21.0,
        "Make Multilabel Classification": 21.0,
        "Make Regression": 21.0,
        "Make S Curve": 21.0,
        "Make Swiss Roll": 21.0,
        "SpamBase": 21.0,
        "Titanic Dataset": 21.0,
        "Wine": 21.0
      },
      "min": {
        "Adult Income": 21.0,
        "Airfoil Self-Noise": 21.0,
        "Breast Cancer Wisconsin": 21.0,
        "Concrete Compressive Strength": 21.0,
        "Credit Card Fraud Detection": 21.0,
        "Diabetes": 21.0,
        "Digits": 21.0,
        "Energy Efficiency": 21.0,
        "Iris": 21.0,
        "Make Biclusters": 21.0,
        "Make Blobs": 21.0,
        "Make Checkerboard": 21.0,
        "Make Circles": 21.0,
        "Make Classification": 21.0,
        "Make Friedman1": 21.0,
        "Make Friedman3": 21.0,
        "Make Gaussian Quantiles": 21.0,
        "Make Hastie 10 2": 21.0,
        "Make Moons": 21.0,
        "Make Multilabel Classification": 21.0,
        "Make Regression": 21.0,
        "Make S Curve": 21.0,
        "Make Swiss Roll": 21.0,
        "SpamBase": 21.0,
        "Titanic Dataset": 21.0,
        "Wine": 21.0
      },
      "mean": {
        "Adult Income": 21.0,
        "Airfoil Self-Noise": 21.0,
        "Breast Cancer Wisconsin": 21.0,
        "Concrete Compressive Strength": 21.0,
        "Credit Card Fraud Detection": 21.0,
        "Diabetes": 21.0,
        "Digits": 21.0,
        "Energy Efficiency": 21.0,
        "Iris": 21.0,
        "Make Biclusters": 21.0,
        "Make Blobs": 21.0,
        "Make Checkerboard": 21.0,
        "Make Circles": 21.0,
        "Make Classification": 21.0,
        "Make Friedman1": 21.0,
        "Make Friedman3": 21.0,
        "Make Gaussian Quantiles": 21.0,
        "Make Hastie 10 2": 21.0,
        "Make Moons": 21.0,
        "Make Multilabel Classification": 21.0,
        "Make Regression": 21.0,
        "Make S Curve": 21.0,
        "Make Swiss Roll": 21.0,
        "SpamBase": 21.0,
        "Titanic Dataset": 21.0,
        "Wine": 21.0
      },
      "non_na_count": {
        "Adult Income": 18,
        "Airfoil Self-Noise": 18,
        "Breast Cancer Wisconsin": 18,
        "Concrete Compressive Strength": 18,
        "Credit Card Fraud Detection": 18,
        "Diabetes": 5,
        "Digits": 18,
        "Energy Efficiency": 18,
        "Iris": 18,
        "Make Biclusters": 9,
        "Make Blobs": 18,
        "Make Checkerboard": 10,
        "Make Circles": 18,
        "Make Classification": 18,
        "Make Friedman1": 18,
        "Make Friedman3": 18,
        "Make Gaussian Quantiles": 18,
        "Make Hastie 10 2": 18,
        "Make Moons": 18,
        "Make Multilabel Classification": 18,
        "Make Regression": 18,
        "Make S Curve": 18,
        "Make Swiss Roll": 18,
        "SpamBase": 18,
        "Titanic Dataset": 18,
        "Wine": 18
      },
      "na_count": {
        "Adult Income": 0,
        "Airfoil Self-Noise": 0,
        "Breast Cancer Wisconsin": 0,
        "Concrete Compressive Strength": 0,
        "Credit Card Fraud Detection": 0,
        "Diabetes": 0,
        "Digits": 0,
        "Energy Efficiency": 0,
        "Iris": 0,
        "Make Biclusters": 0,
        "Make Blobs": 0,
        "Make Checkerboard": 0,
        "Make Circles": 0,
        "Make Classification": 0,
        "Make Friedman1": 0,
        "Make Friedman3": 0,
        "Make Gaussian Quantiles": 0,
        "Make Hastie 10 2": 0,
        "Make Moons": 0,
        "Make Multilabel Classification": 0,
        "Make Regression": 0,
        "Make S Curve": 0,
        "Make Swiss Roll": 0,
        "SpamBase": 0,
        "Titanic Dataset": 0,
        "Wine": 0
      }
    }
  },
  "layer_0_bias_gradient_spectral_hist_counts_sum": {
    "aggregated": {
      "std": {
        "mean": 0.0,
        "median": 0.0,
        "std": 0.0,
        "min": 0.0,
        "max": 0.0,
        "count": 26
      },
      "max": {
        "mean": 1.6153846153846154,
        "median": 1.0,
        "std": 0.9638433912416667,
        "min": 1.0,
        "max": 4.0,
        "count": 26
      },
      "min": {
        "mean": 1.6153846153846154,
        "median": 1.0,
        "std": 0.9638433912416667,
        "min": 1.0,
        "max": 4.0,
        "count": 26
      },
      "mean": {
        "mean": 1.6153846153846154,
        "median": 1.0,
        "std": 0.9638433912416667,
        "min": 1.0,
        "max": 4.0,
        "count": 26
      },
      "non_na_count": {
        "mean": 16.846153846153847,
        "median": 18.0,
        "std": 3.278042423486541,
        "min": 5.0,
        "max": 18.0,
        "count": 26
      },
      "na_count": {
        "mean": 0.0,
        "median": 0.0,
        "std": 0.0,
        "min": 0.0,
        "max": 0.0,
        "count": 26
      }
    },
    "distribution": {
      "std": {
        "q25": 0.0,
        "q50": 0.0,
        "q75": 0.0,
        "iqr": 0.0,
        "skew": null,
        "kurtosis": null,
        "range": 0.0,
        "normality": {
          "shapiro_stat": 1.0,
          "shapiro_p_value": 1.0,
          "is_normal": true
        }
      },
      "max": {
        "q25": 1.0,
        "q50": 1.0,
        "q75": 2.0,
        "iqr": 1.0,
        "skew": 1.6043071384584806,
        "kurtosis": 1.4321879183739705,
        "range": 3.0,
        "normality": {
          "shapiro_stat": 0.6459760052870556,
          "shapiro_p_value": 1.0487238654551096e-06,
          "is_normal": false
        }
      },
      "min": {
        "q25": 1.0,
        "q50": 1.0,
        "q75": 2.0,
        "iqr": 1.0,
        "skew": 1.6043071384584806,
        "kurtosis": 1.4321879183739705,
        "range": 3.0,
        "normality": {
          "shapiro_stat": 0.6459760052870556,
          "shapiro_p_value": 1.0487238654551096e-06,
          "is_normal": false
        }
      },
      "mean": {
        "q25": 1.0,
        "q50": 1.0,
        "q75": 2.0,
        "iqr": 1.0,
